86 50
Israel, 20.13799 -12.056986 5.7732253 4.833822 13.854367 -1.8925704 4.930676 -0.06743999 -5.309754 -7.1831675 -8.473402 -9.683934 -0.24936943 6.8241863 7.3013415 2.9501216 -2.749077 7.2462826 -7.7331734 -0.3591088 -7.1604886 -4.2662797 -0.5551255 4.0576024 5.571864 8.088614 5.096132 9.70408 1.0064048 -13.884216 5.3765955 2.1094482 6.909955 -6.731074 13.538082 -0.48201543 -1.1085691 -3.691548 8.92995 -2.9699855 -17.03209 -5.5293202 -6.888658 -4.92753 1.3483857 3.0368013 -15.19914 -7.330432 0.0073896227 3.792467
East, -3.254273 7.417488 -9.224251 0.19047998 2.9361708 -0.67787963 6.3965936 7.7637887 2.015653 14.106244 3.4117975 -11.421031 2.9922013 -5.52287 -4.379533 -12.649578 0.36326608 -0.9938673 13.626431 -0.2884128 -4.435305 -7.8069625 -20.405144 -5.813418 0.4222136 -7.7668805 -1.3082858 -1.4672725 4.6418834 -5.0467567 -1.1027044 -3.7035265 -9.830893 16.321426 -4.3868446 1.5953472 8.366384 -8.356237 2.5008147 -5.2731614 -4.916832 2.4269948 -1.5268291 6.1094346 -5.299265 -0.9180934 4.9415913 2.701383 -5.786672 -5.9325533
in 2.607245 -6.235245 0.30825412 -1.5831653 -2.689388 13.0758 6.674923 -0.9168926 -5.556862 -8.853473 -1.2514428 10.656311 -1.0180086 5.614274 11.431812 4.407841 -9.069021 -4.7809606 -15.87378 -0.23721199 3.88383 12.761248 0.19571742 5.6085844 0.39815673 -0.5827517 5.57409 -8.044817 1.4798278 1.8602599 6.2020497 -3.5712247 1.4664357 5.32788 15.562242 5.976149 -10.697998 9.283841 -4.3691087 4.5258017 4.6658287 1.5095694 -6.6766615 -7.5444026 -5.923318 4.764364 -0.33587763 -5.460496 0.8730616 8.542716
on 4.448546 -2.297551 -0.50074106 6.6783056 17.153479 -5.4770164 4.3412123 -7.4603233 -6.1675053 -0.6675999 0.2038456 0.67540497 4.742383 2.6236386 -0.9875662 13.265248 12.091639 2.5374353 11.098074 -4.8898087 -2.2169995 -3.5398474 -3.6613343 -3.348646 13.60722 4.855047 4.896431 4.1113253 -9.763409 -7.754737 -6.8597097 7.0909595 8.087281 -13.825453 16.160515 -7.095987 3.1276894 4.5108447 9.452368 9.900774 5.144819 15.476339 -1.4311488 9.077703 -12.583063 0.27137148 -4.942197 -8.972814 -3.053788 4.4026594
and 0.8856085 9.444848 4.333662 9.303655 -8.4759 -4.597008 14.626803 -15.406057 4.9643617 8.737518 -5.9651065 -3.9868157 14.013944 0.3095133 -3.8963394 -7.043583 9.575041 -0.95197886 1.312475 -6.993914 12.866367 -4.2638707 -11.295329 7.774806 -0.6819971 9.111494 -6.253873 16.537819 -1.6589122 0.2357874 -3.2775877 13.4766035 2.4896758 -5.918666 13.731765 1.6673559 1.9499409 -1.3815224 5.5560446 7.697139 0.754999 9.879628 1.829837 7.270655 10.430194 0.06550358 -1.3628355 -3.6647449 12.371566 17.038605
Washington 3.8063202 -3.5749204 0.5571143 -14.597182 -1.818677 -2.4650671 -8.800317 11.240282 5.252351 -2.9508412 4.516118 -2.6205988 -7.188965 16.359438 0.12905182 -8.43339 11.57778 1.8514655 -1.4896452 11.461859 5.841131 2.6563177 5.3305044 -8.841283 -13.0561905 -4.085679 2.9552872 -5.1461515 3.6444335 4.792224 0.83955824 -8.448432 -2.2385616 -12.702923 -6.4221344 1.5166811 -0.5535576 13.332515 2.412102 2.7491646 -4.277516 -7.0319686 2.732893 -27.785688 2.2035408 16.229378 12.138489 4.4928904 -5.29083 -5.7174897
Post, 5.350992 3.0136445 12.042247 2.6578205 -4.566415 2.7186737 -8.994756 16.75265 -2.0141258 -17.091917 22.330603 7.5027804 -10.120387 3.033802 6.4346523 -0.37895617 3.407911 2.2846634 -5.588476 -4.0018115 -0.042469837 5.490928 -6.614194 5.043361 -12.418956 1.2813619 7.057777 -4.3161335 1.503472 -3.476916 -6.976672 -5.2358303 4.4476156 -12.910077 -9.173442 1.50839 6.4330425 0.8078166 -0.45139647 -12.552119 3.481879 -10.857578 1.21906 -15.429523 1.222654 -1.4325264 19.027155 5.281977 1.1285933 -5.6459627
African 10.506487 1.6580569 -1.624818 -1.5301541 8.867637 9.265759 -4.8739667 -0.4439916 10.3418665 -3.477008 -5.398621 4.7604265 3.5209038 7.488402 2.9599445 -1.3749611 -14.752577 1.1432272 -5.4430065 -7.592776 12.659524 9.374078 17.995485 -0.6730288 -2.008104 -3.7040372 17.457254 -5.6495166 2.9272196 21.70165 0.5763395 11.357017 6.8378553 0.30581233 1.9692471 -1.620733 -5.887887 6.529059 -5.1619554 -13.690735 -1.9876163 -9.8836 12.47957 -0.7910675 0.18670778 -1.6749432 14.738647 5.5253577 -0.6183632 7.225891
israel -1.6307222 -13.818815 -0.55886453 -6.9057674 4.6628747 -0.23922423 6.0798736 3.2147 -10.330447 -5.750188 -3.5051138 3.551626 -4.200353 1.8628354 13.978562 7.0292983 -1.9881004 5.0399904 -11.230595 3.1409605 -12.654126 13.784498 11.689874 -3.596519 -1.3271042 8.228953 10.233635 4.533936 -7.0123115 5.4534993 0.44278958 2.0530982 7.3799014 -22.63388 -2.9409018 8.8771305 -8.47134 -9.14261 2.7888691 8.7251425 -8.798017 -2.3567157 1.2742327 -13.574411 4.588493 -8.991076 2.8756592 -4.5842657 -0.83582073 -15.864172
netanyahu 0.35005835 -8.829906 -10.230656 4.2010126 -0.7488721 -3.4656045 2.3738906 5.5885587 -4.3087015 0.5513371 -0.13582845 8.638183 -10.440751 -1.4913317 11.89871 8.227814 -0.5756125 8.63897 -14.411911 6.7072296 -4.9600143 0.68487966 11.219523 -9.945711 -7.5669255 -1.3387337 0.24022263 -1.0993115 -5.0422716 2.1316102 0.12169421 0.42290154 11.987789 -21.4034 -2.771537 3.5434036 3.268938 -9.157443 11.372104 7.85316 -16.19924 -7.101932 -5.3116164 -16.655685 3.137553 -11.233735 10.421897 -2.5945134 4.2758827 -6.3330703
to 1.2223227 7.309958 7.0146255 -9.440026 -3.4777682 16.952778 2.2043722 -8.122214 15.96374 -10.134941 5.6674027 7.0593224 1.549754 1.6627886 -4.104342 1.2699153 -9.033578 -4.545086 -0.19886112 1.0705547 0.09149456 -3.2775881 -2.001254 12.9075575 -6.6854396 0.7196339 -0.6862563 -4.62546 2.9791763 5.194001 5.703017 -1.2700132 -7.6326156 -3.3797355 -4.2360716 10.128809 -2.5396764 13.865175 1.8749181 -4.003456 12.233654 17.770592 -6.9637094 10.072742 -3.1362097 10.130323 -5.805945 13.138538 3.2872822 14.484701
Includes 9.346972 -2.9174573 -11.461047 -6.016343 -7.0320225 -1.6773201 -3.4188275 -14.617649 8.193606 3.4722583 5.498241 5.822511 -0.2686631 10.665888 4.336856 3.8943613 11.802252 -6.0594673 10.500513 3.5783513 5.4319396 14.185714 -1.8605173 1.3027012 3.171804 5.3298926 11.20946 -5.660333 7.7965794 -2.2287886 -8.671309 -5.3322535 23.288654 -21.91843 14.862853 -13.328096 4.6132374 5.4727516 -16.165596 -8.020953 -3.6898346 5.4694157 -3.783798 11.597864 8.173557 -16.11662 -12.047553 7.05023 -11.175965 -7.869668
news 3.4594882 2.0739343 -14.46601 -4.4772325 -5.1354084 0.8346933 2.5203488 -20.237436 -3.0248575 -3.6704311 7.6402326 5.6213593 2.858746 5.9460416 5.37083 2.4969773 14.245647 0.5570007 12.826957 9.07601 1.0456399 6.5045085 -0.42396316 7.2568297 3.2213874 -0.82188135 6.983313 0.21959767 6.5333347 9.242097 -15.882118 -3.4828641 17.974737 -14.179321 14.771249 -12.446122 -1.8124801 -4.058873 -15.699645 -9.69218 -13.423157 5.7332273 -3.825948 5.351118 0.27306238 -9.20581 -14.850166 3.02186 -1.6900275 -1.2962681
coverage 15.77959 -4.938921 -8.250743 -8.872568 -4.3788385 -3.4405973 5.4725657 -9.058917 3.8857872 9.559359 3.648452 12.839281 4.3613973 4.1732903 0.6124235 0.4116505 14.077944 0.7212384 5.115865 3.4151268 3.3379252 16.121267 -4.256297 3.5237443 -3.8030565 -8.061206 2.1464622 2.2994633 13.37965 1.0133445 -2.7329903 -6.41958 18.370514 -10.4106045 7.973529 -7.351164 -4.9582787 -17.329258 -8.828719 -3.2957659 -7.131746 10.137696 -3.1044283 14.067546 -4.2690287 -8.582972 -4.45027 4.1546617 -5.443734 -0.47246844
Iraq, 2.138191 -0.11974893 -14.725577 4.35804 -1.1871806 6.2316484 -1.9185271 -7.5186505 7.752263 5.4173627 5.744509 -4.2799993 6.5968094 1.0404103 -3.0308914 -7.522695 1.3737944 0.15638933 9.738548 0.2805402 -7.90775 10.7138405 -9.16421 -10.3366585 4.5894837 5.8177605 5.602126 6.0549216 7.798106 -0.09584001 1.5354326 3.3388233 21.525726 -0.81328225 14.265311 -13.860094 -8.871654 -14.819195 -2.6969151 -4.6105585 1.6810322 17.519466 -5.893821 7.4036536 -0.60430753 3.5553598 -10.433888 0.6758419 11.135805 -3.5966303
Lebanon, 2.2454789 1.0078275 -11.1421585 6.4258337 -10.72211 8.059677 13.373415 -3.3994355 -5.516163 4.0642586 1.7408671 4.3527985 11.361019 -0.64915335 -10.815175 2.329914 5.2519135 -11.09087 15.005735 4.755288 0.22471662 9.534266 -8.603283 -3.81635 -2.0273461 3.140695 3.1112797 -13.954687 -7.376421 -1.2462944 11.352369 7.7469983 4.8986726 -4.5893264 -0.3034281 -11.039945 -0.029181946 -17.15695 6.4239116 -1.181645 -13.022796 3.4836204 7.2134137 10.021244 -1.8931037 -0.3035749 -16.54439 -8.069422 0.1540932 5.4725213
Iran, -8.13342 2.4692538 3.5219746 3.260494 -2.7982333 -5.404573 10.124097 -14.321862 8.394101 6.027411 -0.049078092 4.1722684 -6.67067 0.19104865 0.6007465 5.033661 -2.4295893 -11.573042 7.34047 9.841342 -6.901349 9.5453205 -8.673081 -17.742123 -5.3071146 -3.5386243 -0.46948805 8.250962 -1.4109937 6.7719254 -0.44377562 5.0858593 3.467092 2.6104941 -0.54309183 -9.635541 15.148514 -21.148582 -6.680641 -0.19889042 -4.4226646 0.84677374 -9.928415 16.01738 -2.9295185 12.450929 -5.776715 -15.568343 -3.2823012 8.341023
Kuwait, 1.2550161 -1.514702 -7.202283 13.228904 5.5617166 -2.4645534 6.7899103 -4.858189 5.1386843 9.215868 -2.2708218 -1.9422295 11.493962 -12.4093275 16.284706 7.7683225 9.735846 -13.841917 2.6034546 14.151699 -0.948089 8.090638 -12.119203 -12.542298 -2.72474 -10.080507 3.815806 4.637717 10.026484 -0.755558 -5.057439 -10.627323 -5.5802445 6.5243597 -1.8459952 -6.615317 -1.3162142 -10.740461 11.623146 -4.185708 -1.7615393 10.774204 10.068677 7.3319917 -1.7008917 -4.5422635 -15.5895195 -11.628563 10.396325 1.9879504
Syria, -5.646086 -0.5959549 -10.382907 3.7995515 -0.81569105 -7.7610636 -8.5300865 -11.752715 5.5116034 -3.4608524 -2.1726258 -2.537644 24.07434 -4.5163894 -5.335365 14.286149 -6.441817 -14.430371 13.92504 8.210379 5.3647156 -1.5041852 -5.783988 -0.3716472 -16.350994 -6.569531 -8.397269 7.753906 -4.553001 -8.656966 -0.92701185 -0.84835285 6.5001225 14.478812 7.243307 -3.3704915 1.3448138 -22.763714 0.5914141 4.1430182 -3.7938313 8.817908 -2.714925 1.5839792 -4.8005557 -2.851075 1.0093756 -8.191942 -6.9455295 -1.9433817
Saudi 0.77693206 0.17714219 5.133864 7.3523083 0.13709056 0.8384156 9.711721 -4.8837795 -0.7940582 20.703209 -0.3818833 -7.49674 20.995924 -14.273947 -4.32879 4.2131925 5.587309 -2.8882558 12.494889 -1.9079019 -11.359334 -0.67220086 0.9268024 2.2330081 -1.4666642 -17.336637 -1.0011498 -3.1967535 -11.295492 2.1650836 -7.2010975 -17.503864 14.375764 7.590493 9.495934 -6.1479354 9.191822 -4.97539 8.136537 8.337801 -8.90449 -1.7388731 -13.166692 16.192009 -3.1416981 5.102186 -3.4960225 -6.8275266 10.853416 -6.708744
Arabia -8.2037 13.729162 -2.1158786 -1.4968439 18.24248 -7.912701 1.3692179 2.4347792 -5.6272984 12.007672 4.10961 -3.3079884 2.6499608 2.8753052 1.8537724 3.914328 9.883709 -15.537005 7.2021623 -12.723453 6.2232313 -0.18535997 -5.6317415 -9.055203 2.9689403 -11.113122 -25.709358 2.566931 0.23200154 -0.38906923 8.683152 -1.5375211 6.509139 5.49963 3.0427394 -7.5956182 1.6456548 -15.586053 -0.6074891 0.6618964 -17.928925 10.20925 -8.486298 7.1191363 0.276267 -12.311834 -14.205531 -8.599119 12.83948 -1.7314605
Jordan., -2.6519024 -10.749437 -9.655157 12.55265 -6.471909 -3.5491455 3.2003272 -8.770823 -13.777236 2.079767 -0.18048619 -2.689057 11.59594 7.39076 -8.8560705 2.3635063 10.229293 1.2282317 11.65626 -6.0436482 -9.045378 -4.1501656 -19.633608 -22.248478 2.891138 -2.8098474 -10.713293 17.43242 8.303602 7.6966147 5.089803 -9.717369 9.439092 15.432779 -9.031771 -8.359812 -2.442478 -5.309081 8.050457 5.9538183 -11.52237 -3.586974 -2.6357539 15.837079 -0.055967916 -12.803238 0.6723409 -2.0742075 -4.340483 7.053967
site_theme=normal, 6.445072 8.638773 -4.9929395 3.4033442 -7.2141786 -19.80776 3.53078 -3.1526575 -1.8668718 10.512918 2.6562104 -1.0721734 11.98916 -7.7365437 7.6630836 -1.6906629 2.9800417 8.255195 7.42345 4.6108184 -3.6334133 -24.07794 -18.921938 -6.9470153 10.757376 -13.183565 2.6297126 -8.4359 1.1658118 3.488606 9.9794855 5.664705 12.506502 10.115463 -9.622338 -6.353938 -1.6439732 -14.574513 -1.1631414 5.543144 -2.6909995 15.109023 -4.3831186 10.282156 0.66585904 -2.7368376 -9.149238 -22.15985 -6.8410797 -2.6560307
site_title=Middle -14.837377 10.269588 -0.7637571 -4.2371087 -4.099475 -5.5000534 7.20191 -10.919819 7.091065 12.6347685 2.0175264 -3.0411248 8.1119 1.5318019 -20.693716 7.955692 -1.7967763 8.704061 6.3300242 5.5227036 -3.2762597 1.1534879 -26.397173 0.3116703 16.607885 -18.982178 -6.0768676 2.3837569 9.906224 -2.8652952 2.4134545 1.0485535 -1.447443 10.080173 -2.5831175 -15.359094 7.8317575 -15.853181 15.974676 -1.8900131 1.5935489 0.23406811 5.118116 2.340513 -9.50622 -4.4743996 -10.938731 -1.8259535 0.83024204 -6.9302506
site_tagline=null}, -4.585522 5.3141956 12.912268 -12.981897 5.2033105 4.1990905 10.190619 -3.5575662 -4.2870955 2.7911603 -3.40152 -15.718794 11.439334 3.7366397 -1.8191975 -4.7516894 2.103689 1.3848708 23.942467 1.3293905 -19.323706 5.1168294 -21.619968 -6.40457 -6.0131197 -7.8560343 0.012646861 3.9915967 -8.051387 -1.3665324 -0.5958269 -3.1678958 -12.716786 10.215847 -9.35769 -8.127682 -1.2584875 -21.282242 0.29903835 5.1745267 0.97670406 18.394053 8.068262 7.1039057 11.304411 -6.561037 -2.1002054 -8.821683 -4.420222 -8.095908
navigation={nav_title=Middle -9.200185 7.3233504 -0.19932328 8.669117 -2.9450378 7.4284406 1.9532821 7.771583 -1.6388878 18.91906 -11.95626 -9.699708 14.128911 -2.149074 -11.039268 6.419117 6.216445 3.1879313 19.129074 -0.36807096 0.86009544 0.52765423 -17.35614 -12.740236 3.1434114 -18.21506 -6.45048 5.10069 -1.2619073 -16.876865 -10.096386 6.442665 -5.311102 10.633189 -15.603168 7.4997754 -0.22796203 -9.072309 -7.448054 -21.551321 -3.784423 12.075229 -4.2995872 8.570378 -3.3714237 9.436594 -1.8402764 -8.667358 -5.1117034 9.227436
display_in_top_strip=false, -6.4379654 12.969031 0.12666431 -8.042191 -9.599389 -1.4956462 3.583542 6.05257 5.08279 16.858894 -2.5173292 -7.0555515 11.044204 0.49079764 11.767294 -6.27719 7.4263325 6.4884386 9.598142 11.926834 -5.794278 -8.408918 -8.69021 -20.322561 -7.6031885 4.07752 -13.43362 7.498848 -13.979714 -19.337122 0.3838951 3.520833 -7.363553 21.615763 -5.4265113 -6.492098 6.5722055 -12.611388 9.582314 -6.5747085 -8.874422 -4.811775 2.5459077 12.491615 -20.054499 -7.139461 2.1571312 -0.86536384 6.376563 -4.6000023
nav_display=true}, -3.347645 6.959318 -13.261428 3.6479292 0.34582153 -3.5626526 0.64294 8.623183 10.454069 14.0268345 14.152932 -18.348343 11.941188 3.6184916 5.1656346 4.768071 17.487263 -9.817176 10.444776 -0.6386979 -8.602295 -7.6815834 -15.713745 8.411216 -0.89958584 -8.508061 -8.354248 6.835043 -5.971448 -7.7437444 4.7499285 7.0569715 -19.67379 19.767063 -17.672873 -11.569526 5.2702007 -9.751414 -1.871674 9.302289 3.9872603 -7.4814076 -1.8630662 12.558107 0.39628586 13.215882 7.6560817 3.0068579 4.09889 1.7911661
_admin={tracking_node=/world/middle_east, -0.84977245 5.193001 -0.9934597 -12.14828 -8.182033 -2.3620694 2.7952206 5.8971596 1.1636918 4.4587226 4.179737 -21.628775 -7.618238 -14.203707 -10.529729 -5.485708 20.658878 -18.274973 8.900215 -3.8243277 -1.5071306 -16.473473 -15.727116 -5.4029517 -9.173752 -13.076004 -10.678319 8.82151 -7.9320545 -0.6586049 -0.34900597 4.073428 -0.2231458 26.764032 -3.7839231 6.0345674 7.1346087 -4.691346 13.728774 -8.556942 12.015729 -1.7925829 8.31646 7.0504656 -1.5376743 4.7353606 1.1332331 -6.589513 -0.47345734 -6.0701656
alias_ids=[/world/middle-east, -8.209524 -1.5723209 -7.4068584 3.243481 6.539595 -12.202172 0.8884594 12.797573 -11.892828 22.432528 -1.238129 -11.369672 2.4109733 1.2362885 -13.474837 -13.423664 -1.6511753 -1.444626 -3.5943143 -0.09156356 6.5285044 -9.352161 -26.144009 3.3207285 -21.586565 -1.7905663 -1.5774738 9.187612 -10.757161 -1.4948885 -2.9125257 -5.9237714 -8.298604 18.588102 -17.595366 -9.791333 12.058758 0.3386461 1.2276123 -4.8336473 4.5922093 1.1890621 -3.1257353 -1.8408102 -6.0965605 2.9717493 2.6810017 -12.319297 7.8337903 -12.7499895
/world/middle_east], -4.9286013 3.4803853 11.492799 14.360522 -3.4784482 -14.382641 -4.686408 14.886486 -2.984443 13.872581 -5.0390496 -5.6867003 1.6634477 8.583979 0.079340376 -22.0194 -3.0782537 -16.993113 13.37918 -5.9353275 -4.9750085 -19.366907 -19.21026 -7.5105987 -1.7240869 -19.501348 -8.485561 -0.24845321 -2.2849412 -2.826671 -11.666265 0.7704532 -8.16669 11.964105 -7.979716 2.9384253 -0.87090397 -11.915398 7.1936817 7.5048594 8.232 -10.933262 1.9958116 -7.173151 -8.172098 2.2146347 0.31970668 11.520154 0.8569349 -10.405948
commercial_node=/world/middle_east, -1.3513685 3.8931274 11.839891 7.3924274 -5.611829 -6.3275127 -1.7765102 6.260774 -1.811718 11.623651 13.994905 -35.970978 1.7789322 -2.726315 -8.097623 -9.930105 -3.6675527 0.38249013 0.72819096 -7.029868 10.270463 -11.870412 -8.133002 -10.679123 -0.14548829 -1.872763 -16.616703 -9.177994 15.305237 -0.7658934 -11.567404 -5.6401873 -14.464843 9.672527 -13.427118 0.39196685 3.2817194 -5.582258 4.0972166 5.910545 -3.3959382 -1.057989 6.007851 3.44804 -11.730582 0.83536357 17.147354 -9.306543 -2.6332567 -13.527175
default_content=/WashingtonPost/Production/Digital/Queries/site-service/world/middle-east-stream}, -12.850044 1.0650988 7.2580767 4.036126 -8.738876 -2.688591 -8.99339 18.119156 -9.086854 19.897356 10.33724 -7.9091897 1.9592897 -7.690967 8.714173 -15.329954 -5.6606083 4.99283 14.453512 -12.763907 0.26986226 -10.776701 -13.024807 1.3291999 2.3877285 -13.140949 -9.486865 14.419275 9.630865 -1.3450488 13.982602 -7.803073 -12.914988 11.501113 2.8754053 1.4713923 18.131512 6.0618205 2.088815 -1.1645577 -2.416831 0.6742683 16.14058 -9.255627 -1.3799498 7.826083 10.972506 -4.34061 -10.444749 -11.390539
inactive=false, -14.045562 0.5947783 15.644464 2.0278888 3.295814 -7.75499 -3.16897 14.741973 16.38361 8.480257 2.9053617 -5.5843887 -2.2445395 -8.966152 -1.8523632 -17.625454 5.9442787 1.582694 17.988699 -3.6196856 16.295622 -12.187711 -20.968527 5.8991265 13.35038 5.021034 -2.6882114 0.51033014 -1.005826 4.640797 4.0296636 -14.309376 -15.27056 19.645775 -10.355267 3.8190756 -7.4705815 7.7188535 7.292944 -6.03656 -4.910348 -3.9357758 -6.504844 0.21789256 -0.29548058 -2.9957035 19.487785 -0.29507172 -4.7163405 -5.6107745
name=Middle -10.8259325 2.3906288 7.5991187 -10.648102 10.6804285 -15.257156 2.572194 1.6382123 -12.756831 11.058338 12.331349 -3.3239422 7.1625876 -2.0985394 0.7262143 -14.7311535 -5.313225 3.697377 11.388157 -3.6911132 10.1499 -12.315702 -15.123122 -6.199372 4.5573587 -3.06585 1.8417312 -9.000043 14.602984 -12.6316395 -0.038598463 0.7198448 -13.060477 20.685993 -6.5640035 15.787351 2.7147331 14.645437 3.1312058 -9.530384 2.5119777 -8.697909 3.8857398 9.272519 10.962956 7.3499403 18.481983 12.611231 5.998935 -7.6303105
story_list={display_social_share_buttons=null, -7.951415 12.838598 3.5634203 -1.5937119 13.893428 5.8669996 -15.534729 4.6149163 -7.857024 14.259668 2.554232 -11.303727 3.302339 5.161009 -5.7172537 -27.591969 15.078343 -1.40764 -11.992871 1.9718199 -8.387727 -13.066482 -4.361049 2.7520514 16.045193 0.07365686 7.699183 -4.0906177 4.0390525 -7.824265 2.7998798 -9.785228 -11.191292 13.77245 -6.3679366 14.638186 6.708729 -1.3231665 -2.8555202 -8.362675 5.603255 -11.57116 6.749567 -1.0135629 -0.15864645 -8.142827 19.622623 -0.291849 -14.835189 -6.9095387
social_share_buttons=null, -4.590811 10.620987 -3.8721325 -10.418421 0.15441963 4.913379 -0.621483 6.153903 -16.308624 1.3389853 -2.2961986 -13.229539 -2.627278 4.44446 11.309145 -16.286367 5.304687 11.669531 -0.27057883 -5.8183994 1.446516 -14.177004 -8.809755 15.517209 11.53403 -2.4163938 -1.2856367 3.902682 1.7712349 10.258241 -15.4777975 0.3139579 -17.506695 18.672192 -5.343718 11.200246 -8.310876 9.709464 -7.0573397 -12.591905 -3.1538103 -11.873026 4.8290606 -0.19206925 -6.6036954 3.7208796 8.294025 6.222556 -4.829105 -15.99549
story_list_content={}}, 5.0894628 2.3496182 -2.8114488 -13.129553 -5.706572 0.6098712 -4.725614 13.497816 -2.1439734 15.476702 -6.865392 -16.599203 -4.911822 12.338839 11.434603 -8.416994 4.552584 0.43558228 -1.5551336 -12.352773 6.118722 -0.8261151 -14.336868 5.2328362 11.597444 5.7967706 4.7261863 -1.1562294 -0.027719077 -5.255305 -7.612154 0.19454975 -5.747074 10.236347 -2.5768805 6.2485027 -2.37386 18.587027 -11.268109 -8.752802 8.716797 -10.873168 3.928018 11.611138 3.703199 -9.196703 4.1430063 9.729354 -17.290808 -27.43685
_id=/world/middle-east, -7.029056 -1.1462126 -3.542942 -3.3967247 -8.190592 10.561546 5.6130543 19.313251 -9.764183 1.5349051 -6.3048115 -6.6393957 -0.81327915 4.4030805 0.9954394 -19.347313 -4.02576 -10.991602 -0.06398057 -7.2844067 2.8584602 -1.6789025 -2.3391907 11.6051855 5.6393304 12.969857 3.1103456 -19.432543 -5.5297213 -4.071907 10.081729 11.054783 -17.132607 8.369223 -18.953878 16.721859 -1.2869788 13.103766 6.673218 -5.645828 -5.0632496 -20.010239 14.699677 3.8860426 -1.1138595 3.1319773 5.431674 -3.766464 -9.104818 -14.836175
ancestors=[/world], -7.298172 -19.82162 -7.509374 -8.022157 5.3349605 -6.4969983 4.937259 7.526437 7.2139893 -6.552265 -2.3446133 -10.494943 -2.1516008 6.0470524 10.28625 -28.816938 5.368209 6.0724087 3.6824002 -20.196663 -2.935436 -0.9542114 7.1208086 5.914503 4.632311 -4.0401 1.4803495 -3.0788593 2.5706477 -15.323318 0.7024104 -1.0036492 -9.673828 3.303716 -9.219126 11.893461 -3.5521655 9.397599 -11.329694 -10.770394 13.899956 -21.42228 6.1418333 -1.03712 -12.676859 -3.9841204 5.8434005 -12.828447 -2.2714632 -18.175798
order=DGDGDGDG}, -10.12326 -11.628913 -4.2337637 -10.229497 3.6399422 -4.5423484 -16.783539 6.5916433 2.8947341 -8.261099 -8.642017 -9.468698 9.864757 4.208158 11.593358 -6.5441747 -13.783249 -14.383495 -3.1889997 -4.6507506 5.5119443 -6.859974 4.769221 19.491476 -6.628418 10.328927 -2.1309679 3.8308246 2.6340096 -11.363058 -3.835009 4.0470195 -2.1754134 12.778712 -5.315094 23.603727 -3.554833 9.805578 -1.2111921 -2.711224 1.0375392 -9.040068 -0.5470566 -5.3576856 -7.7319813 1.3993124 21.130375 -0.12819542 -16.094057 -22.644201
source=The -13.524817 -9.082399 12.824543 -7.833735 3.7426033 -5.0330358 1.3075382 5.9987693 3.5512395 1.5396453 -5.9378953 -2.9506013 -21.046858 6.0094385 19.591427 -13.0628805 -12.011425 -13.527908 -12.645679 -1.8568152 -4.4809566 2.5205166 2.2577498 -0.5951925 3.484235 12.764658 5.798505 6.71073 4.9889317 4.8415027 -2.4465814 6.4566174 -9.408941 4.2773414 -12.2755575 18.595972 9.479176 11.329057 -7.066379 -5.0678153 1.0305985 -18.552296 -6.349072 7.1664586 -6.097408 17.495434 14.922818 -9.027612 -10.567602 -12.605898
taxonomy={keywords=[benjamin -13.502397 -24.230776 6.105237 0.4265 11.9936695 -6.898272 4.3434515 18.528383 -8.553287 11.054459 0.877282 -3.9740443 -11.139603 -1.6685519 18.220387 -8.402777 1.8928028 -3.1897206 -8.982272 1.9666082 -5.1162734 -4.2136245 11.569858 15.656576 4.325695 22.072891 3.5488641 -2.5056798 12.411778 -2.4753692 -5.385175 -2.4473805 10.8263645 -2.6606889 -3.4312553 9.605758 -10.455737 12.690516 -0.6530083 -5.877019 2.255416 3.8697162 11.071216 2.0801737 -10.125887 2.288578 5.3821354 12.438202 -6.9613156 -5.6376863
netanyahu, 4.2166986 -15.184451 0.09811246 -8.665449 -3.008261 -1.6651418 0.9443999 3.6916976 -19.011917 12.725143 0.9336445 -5.2218757 -4.416164 -2.3132737 18.783798 -11.221285 -7.2826695 -15.256473 -2.223316 -3.6362166 4.003163 3.0379784 16.337969 7.6606755 17.389229 13.378631 17.141308 7.797944 9.5464945 -1.0991676 7.7437825 -6.211162 0.10888086 -10.5932255 -12.481069 7.9185834 -9.895843 3.6842258 5.4025955 -13.773949 4.0264845 1.3444086 -10.747117 -7.407658 -13.617106 -2.0524292 13.062154 7.3323693 5.860858 -11.220273
u.n, -0.9486288 -28.558296 2.2056487 -8.573125 5.502107 2.249633 -14.906754 -2.28424 -6.879272 12.466208 1.0199687 6.95546 -2.1674707 -21.184477 8.021996 -10.620827 0.49000204 -5.3601446 -17.228827 -15.053223 -2.205171 -0.9687342 -1.8567135 -2.913693 9.432364 14.982756 14.401781 -4.111581 1.6107745 -0.86661935 -2.342091 7.9398084 -7.117306 -13.469421 3.11547 9.511142 -10.40679 4.420327 -11.372446 0.099176735 -18.498312 -3.0551977 1.1171566 -4.682473 -13.561718 2.1636915 4.0917997 11.610469 2.0733109 -14.635538
african, -12.455962 -12.259851 -3.0903032 -9.478718 4.960698 -4.451281 1.3924019 -2.31317 -0.6199854 6.6169944 -0.21023883 4.7331963 -5.9278693 0.3953998 -0.6283686 2.226771 -11.576939 8.74311 -19.467602 -0.3721713 -2.0527258 12.86537 0.033804927 13.876305 25.328995 7.1592236 12.450544 -0.8033401 14.889725 3.02895 2.5980785 6.405522 3.6208904 -16.35136 2.3751976 11.551675 -3.7827034 5.034044 12.4563875 -6.418459 -1.90738 -14.363874 3.0864732 -12.82684 -17.462784 -3.9496377 -1.6185688 9.234617 -3.5755503 -22.18206
israeli, 7.114442 -8.07561 -12.03226 10.7666235 10.677656 -6.770496 -8.640697 -1.0151654 -12.177314 12.013593 0.10091002 -2.1205027 -3.7513006 -6.241201 12.036789 -2.1847951 -6.4413733 10.071638 -0.015163836 2.419853 0.6708374 14.484319 6.30492 0.36184874 3.849016 18.042873 3.5115726 -4.9261446 -2.1909578 15.174472 9.658779 -2.084407 -0.21201919 -18.493288 11.043564 35.00034 -7.0674896 -2.32628 -4.9428644 -5.097552 2.1360614 -14.310556 -3.7900162 -3.6214747 -12.168967 -3.3427863 -3.5824533 4.1563816 -2.1950958 -13.581419
migrants -2.0044377 -1.1333133 -14.475835 6.458409 3.2166157 -18.522242 8.10549 9.290243 -13.756525 -4.8716474 -0.09652337 5.789856 5.899386 -5.8585644 10.371901 -10.865635 1.2680442 2.9817553 -20.692661 -7.3607507 -3.9119203 20.008837 19.683798 -6.4651346 4.355009 10.50494 12.276633 4.8113475 -1.1844344 5.0184355 -4.1081243 3.4490654 -1.6507068 -10.673319 11.054183 5.1848016 -10.339996 1.5584737 9.969094 -5.921912 -14.04018 -3.587396 -10.3141775 -3.2948573 -0.80990034 -0.646007 -1.1864278 1.5841138 -19.857924 -20.95729
illegal -0.04745544 2.3172243 -15.641962 -3.4980097 6.2757072 -3.336579 14.913291 9.364608 -9.79881 -10.794071 -13.676544 5.349407 1.9405359 -7.4698024 13.001469 6.7326365 2.1031024 -0.78873426 -13.138212 -3.881123 2.219264 3.6682715 6.7225943 -10.924014 6.8823786 16.086943 8.903951 9.226445 -0.70440364 -0.17204319 -1.2934501 -14.576036 21.905298 -20.508833 -4.266348 5.4410667 -0.9102099 -13.463721 -5.564515 10.2665205 -12.464338 -14.815049 8.965274 -11.909629 -2.102228 7.1571975 4.1379423 -0.6203211 -1.5101645 -18.324726
migrants, 6.619196 -13.873807 -9.408396 -11.532866 -3.695799 -1.7159292 4.551642 3.8666086 -8.276884 -12.590195 1.5109127 -0.27948773 -18.99956 -14.50703 3.8709068 14.702736 15.973628 -10.159353 -18.412693 1.5092984 -3.8975418 3.966319 17.046535 -7.010691 -4.407445 1.9755068 6.3397155 9.504457 -11.232737 8.963384 2.8066623 5.552596 21.157372 -11.930355 7.5705605 13.780093 -5.741716 -5.9931 13.393392 -1.1491237 0.7313941 -10.6344 4.6944017 -11.586483 2.4628668 -1.2905422 -1.8220286 -5.5544996 0.009069484 -12.088978
africa, 3.568068 -11.288056 -19.991001 4.8866677 2.329221 -3.6357577 0.44970313 8.157033 1.3559046 -2.512408 12.632231 3.2928874 -3.1394384 3.1838658 16.610092 25.154236 13.235387 -0.7005299 -16.533487 5.9443893 -9.839355 9.597449 17.161753 5.982475 1.5500671 3.5938756 6.132497 6.8082213 -9.525951 1.2004385 6.6504416 7.997676 0.62505406 -18.486578 -7.746217 -5.3519998 -5.2630553 -11.484055 -1.2418497 17.538425 -6.4300294 -16.43018 -4.4888096 -8.164439 6.96875 6.056022 7.016949 4.1860504 5.452364 -3.9019039
flip-flop, -3.8257115 -13.002621 5.349502 6.8438334 1.8621706 -7.3815594 0.5593595 8.431122 8.642626 -7.5901327 -2.5433233 18.13257 -13.157403 -8.475749 4.080151 14.970851 5.121852 11.5809555 -1.8385895 9.650305 11.058505 6.2033544 9.759988 -4.7149367 6.7802577 8.117653 5.3586736 3.1407452 -13.409483 10.656869 6.8061533 -13.037184 6.5488305 -13.809785 1.0113151 -4.83788 -15.132121 -10.588831 9.0084095 6.721326 -18.472544 -7.67475 -9.361308 -14.788232 10.8235 -13.526405 10.240289 -6.67885 2.4509366 -3.4859154
reversal], -0.78944165 -8.764056 -1.8768754 -3.351582 7.367374 -15.8855095 4.409305 -5.934753 -19.386806 -3.3208241 4.845484 20.458092 -5.0246468 -3.0019288 2.5113666 17.891216 -7.2288837 15.528792 -4.7335324 10.850909 5.755981 4.167714 13.840911 -18.518665 -5.2778015 -4.275604 5.1674385 -7.6752486 2.3402948 -6.787293 2.76512 0.95178604 6.636452 -9.409074 3.5400784 1.7737901 -1.72895 -7.797086 5.949829 3.4431973 -11.441332 -10.9340725 1.2457826 -5.9144597 25.395435 -4.628075 10.8518915 5.6933 14.772482 -1.6819946
categories=null, -3.2493992 -6.9915795 -6.063001 9.7797985 -7.5454497 7.728255 -4.080853 11.176108 -9.544543 4.635617 -17.602507 10.45073 -10.150298 -0.5784513 -5.350799 23.385435 -0.32699832 16.667732 -6.6863027 8.351253 1.365836 10.708108 16.712051 -12.771645 1.1202542 -12.790511 -0.122410305 1.4861447 -5.0490594 -12.637018 -11.726297 8.39455 5.0046544 -17.703873 -9.987178 5.7120333 -3.8673475 -11.047617 -7.593574 -11.355501 -10.475296 -0.66643363 -3.6708333 -12.607056 12.978001 -1.2859323 4.8012033 -5.0928893 -4.3061867 3.8132708
custom_taxonomy=null, 1.9058669 -4.866345 -6.738748 1.9457003 -14.796675 -17.709263 -9.825334 3.1949978 -4.061262 1.4830614 -20.831682 7.7138906 -9.686157 6.4273396 0.18502267 18.862566 4.429435 11.514534 -6.48955 -7.7635956 -10.985373 6.586341 15.25954 -6.9765353 -8.307872 3.4394953 4.2645907 -13.350739 2.0110402 11.291621 -3.259429 -3.7757208 -3.1120028 -0.26587304 -1.2374294 -5.3259215 14.499158 -23.327509 2.0125597 -7.5305743 -12.110846 0.021603268 6.3254576 -16.961946 8.439604 -8.746352 9.444357 0.8266296 12.114934 0.039058622
tags=[]}, 12.408293 7.3114953 -5.7065806 5.1604548 1.279008 -4.7908077 -4.2277308 -8.029758 -7.164093 8.133727 -15.31421 11.501426 -15.221764 -13.21504 -2.8377452 10.018451 -5.7017994 6.4349794 0.08929521 6.652731 -17.151665 7.2072186 10.965631 -6.29571 -13.067213 -1.0163323 -16.493233 -5.487648 3.3434496 2.198743 -0.18988772 5.069738 2.1549866 -8.226877 -5.962211 -23.775066 -8.126581 -7.184715 -0.59056956 -5.3662944 -4.0377684 -15.311816 7.021824 -19.833725 9.044012 -8.694917 16.191664 -5.0840445 -3.8278098 -5.723007
type=article, 6.2707586 -1.9649421 -9.5199995 -0.7197512 -3.6487422 -9.184692 -18.893063 2.5252569 -10.640279 -10.25329 -13.602828 -5.304501 -17.202524 -11.78696 0.02711926 -6.130737 -9.4788685 13.440363 -6.1206365 13.998393 0.34696284 21.82349 7.7478127 -4.51982 0.67305666 -14.647208 -10.082108 -5.5586905 -11.91392 2.983198 -2.8036683 1.4064447 7.46295 -4.551252 -9.799442 -16.654104 11.921798 -13.409701 0.6275404 8.356772 -7.30277 -6.0959916 9.775077 -7.4671392 8.295575 -9.704149 9.405237 7.639321 1.6356794 9.057217
uuid=aDGDGdDGDGDGa-DGDGDGe-DGDGeDG-afDGc-DGDGDGDGDGDGDGfDGDGdf, -1.8519403 4.1909914 -16.539886 8.62297 -9.144048 14.016386 -13.165589 10.7490835 3.3554459 -4.6831408 -6.3911524 -1.8592491 -19.846436 -1.84637 -8.4617605 -8.089155 -17.254377 18.380102 -10.412509 3.337223 -8.182812 3.413792 11.490325 -15.237535 -5.8455772 0.97327024 -4.802745 -0.1469442 0.58393866 2.9233456 5.587921 3.6690392 4.5493364 5.131204 1.5845869 -12.9438715 -4.4352627 -16.421038 2.484781 4.582884 6.625935 -1.1612995 0.1527896 -17.093979 24.151958 0.07125739 9.163958 6.655601 15.337266 -7.12739
primary_slot={organization=For -10.479657 1.8017346 -7.167823 -3.8830206 -8.112579 12.658252 -5.919611 7.3148794 -5.4590626 -5.440124 -12.181824 -3.5226023 -9.417629 -7.9337287 0.6586236 1.9079256 -0.41534173 12.767539 -5.5814953 8.132579 8.93933 -3.4666612 7.664999 -7.2658777 -25.640398 -15.731649 1.7895864 -8.142607 10.262541 14.400102 5.534295 1.2097511 -5.4695444 -13.419805 1.3703655 -21.8042 4.7980733 -21.838484 -2.7221277 2.243987 8.131727 -14.436917 -6.3917193 -8.262556 10.658871 -15.054848 6.0927024 13.164009 -4.386035 5.294418
The 4.6737833 -4.443384 -9.290369 0.9298242 -5.1929913 16.153408 -0.61104786 -12.176452 3.391439 3.8906994 7.426978 9.202733 -13.869931 -0.10408609 1.7927845 -1.3950604 -3.374619 13.332859 -3.3991318 -1.0649902 13.37344 0.9989235 12.10636 -6.3137546 -12.5332985 -8.090808 -9.551794 -9.958499 -8.4029255 9.954946 -8.443148 -5.571529 -2.690333 4.663689 -13.08887 -13.646578 14.447145 -22.965609 2.8616283 0.59287035 7.822277 -3.9075801 3.8688202 -24.867558 17.739792 -5.7422647 0.65452325 15.312801 -13.0307255 2.1629882
name=Corinna -5.697388 3.7163985 -12.961604 1.5562891 -19.600069 4.2814455 1.644495 -9.188043 6.6419764 -1.9033645 9.054651 3.0258083 -22.123367 7.554115 -7.251209 0.47640646 -10.40819 1.0935094 -8.333685 7.300554 0.9099866 -4.8029637 2.2606688 3.476039 -14.056213 -24.844189 -5.45412 -11.1191435 -13.56976 3.5088851 2.9388916 -20.069227 -8.73847 -12.275787 1.2796866 -6.5709195 -7.9055147 -11.264489 -9.636095 -10.39756 0.30249697 1.8332187 11.912953 -1.8845334 14.093291 -4.0968857 18.482512 12.593849 -0.7653693 5.223512
Kern, 0.3082098 4.0506277 -4.4955006 -0.22435673 -0.12435504 10.327641 -12.599889 -4.7320213 -2.3827815 -9.322897 -8.537322 10.532192 -21.297754 7.1930814 -3.647974 9.243404 -1.2740782 13.723458 -0.98891526 -7.9374657 6.840403 -9.263885 5.3046217 -1.3290809 -6.105871 -14.661371 -9.239037 -18.339134 -15.46816 0.2984698 2.0733411 -6.9362364 -16.465475 -13.580353 -2.9069362 -11.1852865 5.343961 -2.9747915 14.879332 2.157383 22.488312 6.1430545 3.6847045 3.070487 5.1974664 6.548548 25.805534 5.953869 -5.2511854 3.2196124
resize_base=https://img.washingtonpost.com/rf/, 1.729411 3.8728693 7.748328 -0.71182454 -16.262884 14.57444 -8.469221 -6.301191 5.347689 1.9229785 -6.027317 7.8210316 -7.3262854 -7.1417146 -11.520464 2.372811 -3.581091 9.332248 -1.2055526 0.35128197 -3.102754 -4.233879 22.44853 16.591482 -8.977346 -21.22817 -9.6677685 -19.995829 -9.699569 4.088197 -8.022141 -20.963959 -1.4228331 -3.4560037 -1.0434594 -3.9901853 11.395352 8.637544 0.30526626 7.5482945 7.318644 -9.669714 -10.478372 6.0380926 19.096876 3.9593523 12.160133 8.543625 8.768584 -2.091556
caption=A 9.381047 7.8906536 0.28701603 -5.582957 -22.668404 -3.844433 -14.962159 -8.985211 7.30454 -10.21851 -2.2396522 15.536713 -14.561707 -1.7420377 -0.078330524 -1.3399013 -6.4470267 15.018843 -6.8159 8.041962 5.216022 -22.553596 6.882732 10.926203 1.1437733 -12.800861 -3.7282147 -24.545725 3.847468 4.41456 8.115611 1.9564369 -1.3358207 -4.506732 -15.830018 -4.9426346 -1.2614223 -0.045060202 -10.808265 1.6460556 14.913409 9.023565 -2.6006818 2.7126052 18.19298 1.2820491 1.8036261 -3.6518228 -7.3852153 5.7257233
security 2.1565256 5.0746794 0.16534178 4.431979 -8.299736 10.703691 -14.356966 -8.070532 13.622027 -10.262271 -10.526182 10.346526 -10.390822 -7.5512743 7.525912 3.7427905 -2.4600446 -2.7619572 -9.91964 12.494875 7.6185055 0.59426844 9.086044 5.6911016 -8.966641 -11.91993 -8.624961 -9.67744 11.181107 0.90904444 -4.101175 -15.015208 -25.372839 0.101881556 -14.411112 1.5199178 -0.76118314 8.012837 5.7679553 -5.51908 16.984291 3.7635467 12.877729 3.6073585 18.542334 -2.4280066 -1.003254 4.8636565 9.887034 5.833472
guard -6.511212 17.219778 5.501857 -12.826407 1.852961 8.034011 -16.214106 -4.4791617 5.2963142 -8.496083 -2.573586 11.476998 -17.34161 8.770569 -5.21651 0.0091381995 -0.67410016 -7.7596593 -5.661055 -12.1944065 14.493403 -0.04967239 15.79039 9.630015 -4.0100417 -7.6981416 -31.303473 -12.371645 5.983523 4.157261 7.9459257 -1.4687421 -8.436482 -5.119471 -8.866428 -1.9302276 0.012350347 5.128416 -9.960602 -5.105678 2.7080457 6.964049 -5.758996 2.4022222 15.1202 -6.810267 -2.6898859 10.694892 11.61665 8.867335
gestures 4.1317916 9.980184 9.456427 -15.139696 -21.642054 14.35872 -13.697148 -9.962981 14.842743 -7.610969 -4.251993 13.723378 -6.6096983 5.2394705 1.0754088 0.014389961 -3.7017734 9.433136 -4.374437 13.286979 6.538996 -0.819226 17.854479 -2.4072285 -13.060369 10.073774 -13.583239 -4.8143163 -7.362415 -10.040726 3.817312 -0.59287894 -13.067843 3.3745024 -3.8319728 -9.199046 -1.5807391 2.6140144 -3.719965 -12.62754 10.603703 -2.3978338 4.1615663 12.466242 -8.214507 2.0122197 -1.1728816 19.751764 7.280602 13.228706
for 0.9699332 -6.1682057 0.30190971 -0.54285324 -19.002882 13.470367 -11.666556 -17.232725 1.0221432 -19.365097 -3.6478467 11.287487 -2.9473205 12.143977 -15.172394 -1.6253456 -1.8845732 4.3022757 -1.9677726 -7.3662133 0.41833425 -1.0637026 0.9944297 -1.3066754 -5.7479763 3.7531548 -12.605323 4.0329137 14.690084 15.086405 5.0221305 -6.9833555 -2.6230016 1.6793946 -18.602257 -0.9376495 -5.6470413 18.34077 -1.5445349 -1.9012195 9.82003 -1.3412497 -1.6073713 10.891 8.856337 -2.47258 7.3918867 19.142992 -4.0727587 21.060146
asylum 1.4104785 22.332619 0.745839 -11.446818 -7.2095914 14.131126 6.163513 -6.302716 11.323709 -21.95427 -9.382769 7.5846047 3.4831305 -4.0728245 -10.332278 -2.468556 -3.94566 -7.1643925 0.97421384 -6.4117312 14.474615 -4.4611893 -2.932636 5.4555197 -3.2693038 7.2623987 -3.6485791 -1.007305 7.4002604 0.93674874 0.8931062 -20.533415 -0.19176306 -1.8425577 -11.052081 -4.831263 2.3535454 1.4145014 -14.050793 -0.64814794 16.88332 5.1435 9.498615 6.691061 3.65393 24.994724 0.79457486 16.198696 0.41361046 10.486731
seekers -0.083948664 20.309805 2.2651196 0.907436 -11.106445 -0.33880025 1.2639135 -5.81985 9.14364 -16.68921 7.0127826 8.520275 8.76698 -1.3520551 -13.363647 -14.220693 -2.5249813 -2.0738223 -5.982668 -6.4813437 6.905707 11.451314 9.597979 5.80876 -10.389141 -3.7996392 -0.96169484 -4.127512 2.8803754 7.138402 -2.488233 -1.4797517 -19.398169 5.218207 3.8841763 -9.049702 -5.7646947 11.862818 4.413212 -12.478336 14.380129 18.352095 -10.082896 10.897369 6.5183334 15.90118 -4.650865 14.504032 -14.48662 11.248474
wait 3.60307 -2.72839 1.965587 -3.526765 1.2909175 7.5715547 -3.7059321 -6.4165606 -1.3968964 -3.0265381 1.9129851 12.272079 -2.018884 5.0106053 -18.403872 2.0378494 -13.382763 -2.3213649 -17.35542 2.0821028 14.055485 2.3130727 -4.732332 18.938175 -22.837793 6.0040927 6.2744155 2.9215128 -9.5658045 10.2923975 4.8736825 -8.498471 -6.265305 -0.9438893 -6.7839456 -8.1740465 -1.7648423 17.781221 -7.7404847 -6.782082 22.259277 15.536162 -6.8347497 3.3548567 -4.09664 12.688313 -14.030792 2.8168912 12.249294 9.674421
line -1.3834273 1.2244875 15.137573 -0.56199956 -12.076142 16.35233 -7.959245 -2.1442342 1.6732013 -5.7767625 12.68013 14.943212 3.5434303 -3.7869613 3.6193042 7.103887 -15.042086 1.80824 3.230024 -8.0395775 3.0233772 0.79262435 6.9249024 12.727073 -0.7517491 -7.0650654 -3.031329 12.790866 5.116652 9.0760145 22.936 -7.898697 -7.0800557 -5.99261 14.585035 1.4127508 3.948923 17.592243 -4.083668 1.8897489 11.976671 18.677774 10.742071 -0.07923246 -0.9930112 16.056479 -12.569455 3.191879 -1.9094757 13.1293
renew 6.523703 1.2091054 20.318113 9.675095 -2.652417 3.6562035 -3.2662756 -0.98636085 5.831891 -11.962336 -1.902932 17.740692 1.6240667 12.426708 -3.5121772 -0.037248593 -13.778651 -19.516645 -0.21784583 -1.6966408 -2.3224795 -8.8062315 3.3365004 5.018262 2.2767384 -10.383648 1.834319 -1.176675 -4.5893407 6.04095 -3.03044 1.231321 -1.5640968 -4.857171 5.880314 7.7409186 -17.170383 6.4579897 0.12489988 10.931174 20.533432 4.011093 -3.1543412 1.9952978 -8.5841 8.991307 -23.751179 18.981424 7.4707494 10.2867985
their -1.6239303 -7.228401 1.1391698 -3.9090784 3.0952554 6.13354 12.013166 -8.874573 20.880749 -23.96005 4.791129 8.55515 8.466735 3.5046403 -6.9675093 -5.8866777 -1.2764354 4.7665167 5.8251176 -11.623848 -3.772185 0.542872 13.230464 5.2934356 -0.5284616 -9.043505 -1.9346559 -0.35384676 -2.5229955 -8.961829 8.915308 -0.9142173 -5.554467 -1.4765687 -1.1615281 7.411943 -6.9399447 14.398093 -10.382229 1.5556974 21.561047 3.6627283 -1.6549256 8.785377 -10.80033 -0.6867875 -18.598303 -12.729267 11.906151 13.051734
visas 1.0380532 16.914469 11.522391 -0.5253248 15.25932 19.171738 -7.4227495 -12.647669 3.1607192 -8.524665 5.3926973 8.888505 12.887375 5.5446143 -13.503781 -0.29059628 6.5275006 -5.7289476 -17.761478 8.998146 -9.911845 -5.6465406 10.757205 5.146232 13.3680105 3.6146715 10.28403 0.9296839 -2.713363 0.026176436 12.453381 -7.2743454 -0.52382165 3.8175807 5.8434415 13.03103 -3.8044987 6.364683 -3.7219667 2.8933778 11.171556 9.194986 -0.7515506 9.642829 -1.6199676 -3.3495574 -7.909018 -2.624604 -1.8615024 20.25332
at 10.477604 3.2691448 17.868803 4.4128637 -0.98647463 9.02991 3.7903183 -7.1021647 5.870891 -14.767053 14.902977 -14.416952 5.0939426 -0.09306799 -12.226866 17.630466 -14.42576 -2.3426552 -11.269219 -1.3465738 10.014388 -0.26607656 14.527027 -3.070099 5.375071 9.612443 -5.823216 -5.797247 9.741371 7.3270316 -3.7326577 -1.6483315 -3.9242084 -3.2277699 1.7795843 3.7205884 -12.730605 11.447478 -2.5204315 12.359735 2.3653483 12.916295 0.69330627 14.356275 -12.281254 5.6077538 -11.027456 -6.644621 4.3228836 6.115802
the 6.1584706 5.3985443 6.9593334 -7.065701 6.5899577 -2.7257385 -7.1518703 -2.7223332 1.8520224 -16.42922 -3.9259477 -7.1436353 9.197497 -10.047125 0.40506938 -4.254746 -11.37205 -4.4473057 -0.72786456 5.3471665 0.593578 18.830832 -4.0964503 9.586562 13.487187 0.019395072 -2.30073 3.4714017 -9.909072 4.730271 3.339103 7.9163313 7.7376294 7.8027544 -4.513144 3.2908683 -0.46067524 20.537594 -1.4552889 6.3979177 2.7166846 12.852801 3.0714915 15.44343 -13.571687 5.7443376 -12.806608 7.0687814 6.5078263 22.705002
Population 11.072838 15.630154 8.527366 -1.0376836 10.077871 3.2404346 9.181594 -12.855188 6.368553 2.0717404 -4.4063745 10.149172 9.989003 -11.059755 -5.511384 10.763768 -7.6286416 -11.58253 6.618981 -1.9655064 -15.708762 1.907707 -2.3076699 7.2660003 -2.6121771 13.669219 -8.457342 4.4220986 5.9328384 4.287598 5.652421 11.375106 0.3725574 6.051635 1.353345 -5.30525 -17.825966 25.794662 -3.5414965 -5.4771986 6.3573627 3.5697508 -0.3494981 2.3840775 -10.662732 6.5101023 -6.424177 -4.9374266 -0.52363086 7.626783
Immigration -1.2957383 4.439627 5.0574603 -3.4170296 -5.654353 -8.65121 3.9671052 1.1686115 8.935661 -5.3512893 -7.5861278 5.8897133 13.890515 7.8904905 -5.410889 18.361046 1.0990411 -5.808694 2.1854231 -14.447467 -9.03211 0.5819328 0.7520475 4.0389075 1.7166518 16.356485 12.61042 -1.7912287 2.5959272 12.858021 1.5251801 2.420138 -5.4908876 16.747852 7.0866756 11.547793 7.622692 8.4602 -2.3122735 -4.2670155 -1.3610978 18.669958 -1.1077181 4.805724 -9.721464 5.487726 -14.909713 1.5927575 13.185571 11.991804
Authority 0.796481 -1.6523559 1.5141487 -0.99286175 11.023873 16.30727 17.638872 -8.572813 7.7131314 0.830857 14.84699 7.1258755 14.358307 -1.132528 5.0565343 4.382717 -7.225266 -2.2673392 -0.5577308 -6.9982767 9.203719 0.27998748 1.0494268 -1.9321668 4.9507446 10.141829 4.011718 9.291209 -9.031641 8.738933 -3.7144558 7.5911083 4.6881914 15.876601 -2.971311 9.555075 1.7598529 7.321191 1.7467903 6.1265163 5.594887 9.980314 -5.6127925 -5.5467067 -4.6932435 3.0685675 -24.904234 6.6669793 -8.304321 6.9223332
office -13.70774 4.8140574 4.9591475 -4.6837564 7.3512864 10.507498 11.142053 10.907832 -0.050378665 -8.457299 -0.95149016 -4.912888 16.77912 -9.078302 -0.7905408 6.9912977 -3.3528416 -3.664194 -0.23272957 2.8682706 3.0896246 -4.861309 -4.4503074 -1.4901383 -6.6836166 1.1135906 14.170274 10.165441 7.657093 10.667168 9.234322 12.680149 -0.5362825 -1.3848158 11.744106 2.4987028 -6.8791094 9.265674 -5.305908 9.8619 6.922789 1.0696764 -13.605245 10.439106 -11.639446 -5.153891 -18.430046 3.400909 0.86233336 9.954043
Bnei 7.6290836 3.9447324 5.6193333 -4.3925786 3.3220367 -2.159176 15.2086315 16.536654 4.6443095 2.1232162 8.518446 13.508735 7.983723 -4.208872 -12.255356 4.5470037 -3.801755 -0.1161129 -6.404583 1.6976796 -3.8104131 8.797082 -0.7337978 0.5148524 0.6936988 -3.6495135 2.3519123 16.10608 1.0524902 0.56013834 5.873258 3.1268504 -0.15314814 11.784284 0.18928139 20.074808 -11.41956 4.6871486 -4.7725425 17.483295 0.9711199 9.332459 -0.38727218 5.722055 -9.365599 -0.9224799 -4.1213303 -1.231142 3.8149953 3.9075916
Brak, -9.479412 3.4906201 -1.7831136 7.6252303 2.835511 -5.6177354 16.65947 0.009603115 3.234658 -1.6796952 16.186329 -5.2206717 4.2604084 1.4133373 -6.759162 6.450186 -9.32105 -10.242555 -1.5047116 5.3139434 -10.440233 -3.7873335 -3.1455832 -1.0435114 9.726697 0.20472203 8.252454 11.973153 -15.42852 -1.7186145 0.4270336 0.18751764 2.2427914 -0.8017166 11.212621 13.2112 -13.608734 14.063837 -9.13615 4.678303 -6.228593 9.734539 6.502703 2.5435202 -8.10439 -2.4717095 -8.237104 -4.3345942 6.009704 5.01999
Feb. -3.1651862 4.0170746 6.411084 5.977098 -0.36856845 -7.0924106 4.933737 7.215551 -7.2605004 1.5774941 10.912738 -4.0203056 3.45608 -8.9210615 -11.749481 3.2547727 0.45246255 -9.108019 14.838089 12.270315 -6.314309 0.86461246 14.186079 -2.4839938 14.826252 12.714548 7.835294 11.787353 1.620001 -5.9693875 -5.10195 8.672947 4.9062963 4.768527 -2.5869071 0.83080375 3.4519324 10.763289 -5.7024217 13.033917 4.956633 7.1010256 -5.6380634 -11.413676 -1.3473828 -8.3745365 -10.109774 -6.421549 11.758896 5.7073436
DGDG, -8.051492 1.9659792 2.3912482 15.007694 10.65348 -8.681168 -0.04363543 11.328525 2.386435 -1.1109415 3.810068 -1.9999449 3.1977863 -15.730606 -2.9552002 9.221058 6.61229 -0.85346437 2.3764946 14.024472 -8.733019 1.3820066 2.5515544 -6.162193 9.08365 11.331869 3.525291 6.295344 1.9781854 -5.2027473 -15.23537 9.312967 -3.3814409 7.647499 3.39879 11.028422 2.7302415 17.563261 -3.346245 18.252787 -0.38498816 -0.19463076 10.111905 -8.914511 6.0608315 -10.253762 -15.731604 -10.284089 8.724418 -2.7273183
DGDGDGDG. -17.087734 -1.6897849 6.602903 11.162829 8.923902 -13.729215 5.0738373 19.166346 -3.5830212 4.6912208 11.890096 -4.8339906 -5.857889 -9.254212 -15.147379 5.425909 10.087191 7.0752974 13.440889 15.673609 -12.989101 -3.270722 10.257568 -0.70800537 5.16449 17.469818 -2.3077395 1.1644268 -1.0122 -5.7895956 -14.866996 12.623715 12.081909 7.692806 3.7702098 1.0560256 3.7631235 9.355531 -11.704683 17.298355 2.2930827 3.7765179 10.466254 -8.942266 4.2067485 -7.2039967 -8.553561 0.049991604 -0.089682 4.725301
